digraph Tree {
node [shape=box, style="filled, rounded", color="black", fontname=helvetica] ;
edge [fontname=helvetica] ;
0 [label=<albumin &le; 0.5<br/>entropy = 0.847<br/>samples = 157<br/>value = [43, 114]<br/>class = ckd>, fillcolor="#399de59f"] ;
1 [label=<packed cell volume &le; 34.5<br/>entropy = 0.072<br/>samples = 115<br/>value = [1, 114]<br/>class = ckd>, fillcolor="#399de5fd"] ;
0 -> 1 [labeldistance=2.5, labelangle=45, headlabel="True"] ;
2 [label=<entropy = 0.0<br/>samples = 1<br/>value = [1, 0]<br/>class = notckd>, fillcolor="#e58139ff"] ;
1 -> 2 ;
3 [label=<entropy = 0.0<br/>samples = 114<br/>value = [0, 114]<br/>class = ckd>, fillcolor="#399de5ff"] ;
1 -> 3 ;
4 [label=<entropy = 0.0<br/>samples = 42<br/>value = [42, 0]<br/>class = notckd>, fillcolor="#e58139ff"] ;
0 -> 4 [labeldistance=2.5, labelangle=-45, headlabel="False"] ;
}